<?xml version="1.0"?>
<opencv_storage>
<stage0>
  <maxWeakCount>5</maxWeakCount>
  <stageThreshold>-1.2034525871276855e+00</stageThreshold>
  <weakClassifiers>
    <_>
      <internalNodes>
        0 -1 69652 -3.6497786641120911e-02</internalNodes>
      <leafValues>
        7.7006733417510986e-01 -6.2906306982040405e-01</leafValues></_>
    <_>
      <internalNodes>
        0 -1 229213 9.9466806277632713e-03</internalNodes>
      <leafValues>
        -5.4678803682327271e-01 6.7333644628524780e-01</leafValues></_>
    <_>
      <internalNodes>
        0 -1 129121 -2.7240574359893799e-02</internalNodes>
      <leafValues>
        7.7158200740814209e-01 -4.1444149613380432e-01</leafValues></_>
    <_>
      <internalNodes>
        0 -1 155193 -1.4866305515170097e-02</internalNodes>
      <leafValues>
        7.4056845903396606e-01 -4.1290539503097534e-01</leafValues></_>
    <_>
      <internalNodes>
        0 -1 143448 -1.1961422860622406e-02</internalNodes>
      <leafValues>
        7.9974550008773804e-01 -3.0072942376136780e-01</leafValues></_></weakClassifiers></stage0>
</opencv_storage>
