<?xml version="1.0"?>
<opencv_storage>
<stage6>
  <maxWeakCount>7</maxWeakCount>
  <stageThreshold>-1.2638567686080933e+00</stageThreshold>
  <weakClassifiers>
    <_>
      <internalNodes>
        0 -1 3175 -9576457 -570436097 -922495489 -4252321 1243564767
        1515079867 189790959 1600085999</internalNodes>
      <leafValues>
        -6.8006771802902222e-01 5.3193449974060059e-01</leafValues></_>
    <_>
      <internalNodes>
        0 -1 6606 1359204546 -204213313 1438768639 1943491479 -642844241
        -1471847 1541378955 -1049121</internalNodes>
      <leafValues>
        -6.4020437002182007e-01 4.6464744210243225e-01</leafValues></_>
    <_>
      <internalNodes>
        0 -1 6660 -3506426 1430547202 -1148204300 2003152826 -87099458
        -124084577 -1318060868 -167772737</internalNodes>
      <leafValues>
        -7.4707376956939697e-01 3.7778922915458679e-01</leafValues></_>
    <_>
      <internalNodes>
        0 -1 6214 -1056714622 -11853369 -113519169 2147162491 -536936773
        -666894330 -20915573 -6343173</internalNodes>
      <leafValues>
        -5.7301980257034302e-01 5.0283527374267578e-01</leafValues></_>
    <_>
      <internalNodes>
        0 -1 7322 -5 791392187 1073741755 -1314889 -307512421
        -1970622741 -583541539 -1918896161</internalNodes>
      <leafValues>
        -4.7671458125114441e-01 5.9391832351684570e-01</leafValues></_>
    <_>
      <internalNodes>
        0 -1 5574 -12604 -412357436 -401620352 1928062863 -405552306
        1078963982 -522981182 1367339903</internalNodes>
      <leafValues>
        -7.9937624931335449e-01 3.6724808812141418e-01</leafValues></_>
    <_>
      <internalNodes>
        0 -1 5046 1393251786 -78687982 -1884626216 1881947006 -286268978
        -20014582 -312806849 -715261953</internalNodes>
      <leafValues>
        -6.5297013521194458e-01 3.8412570953369141e-01</leafValues></_></weakClassifiers></stage6>
</opencv_storage>
