<?xml version="1.0"?>
<opencv_storage>
<stage16>
  <maxWeakCount>10</maxWeakCount>
  <stageThreshold>-1.6855287551879883e+00</stageThreshold>
  <weakClassifiers>
    <_>
      <internalNodes>
        0 -1 7595 -242142309 629147650 -721075853 2012467729 -1314430533
        -1987395273 1238089882 219151583</internalNodes>
      <leafValues>
        -5.3716927766799927e-01 4.5820790529251099e-01</leafValues></_>
    <_>
      <internalNodes>
        0 -1 1993 -682367484 -141168297 -765877505 -1093537671
        2067522052 -626403301 -645660929 -140833</internalNodes>
      <leafValues>
        -4.7724425792694092e-01 4.5132544636726379e-01</leafValues></_>
    <_>
      <internalNodes>
        0 -1 7751 1401889482 1095726085 -1608385948 279249271 282516420
        1124173957 -176051736 -273288329</internalNodes>
      <leafValues>
        -5.8412134647369385e-01 3.7330612540245056e-01</leafValues></_>
    <_>
      <internalNodes>
        0 -1 3406 -778371589 -121447358 151525362 227737617 1099538903
        279904503 1309700723 1369916279</internalNodes>
      <leafValues>
        -6.9552373886108398e-01 3.0622985959053040e-01</leafValues></_>
    <_>
      <internalNodes>
        0 -1 4099 -1724884776 -314023311 280305817 -777485119 -118161846
        -1895790582 -527659782 -662119808</internalNodes>
      <leafValues>
        -5.6788414716720581e-01 3.4202107787132263e-01</leafValues></_>
    <_>
      <internalNodes>
        0 -1 4842 294800667 1880150867 1074360588 -163329189 -567190095
        -1853861877 -871926905 -1079813761</internalNodes>
      <leafValues>
        -5.5328881740570068e-01 3.6522662639617920e-01</leafValues></_>
    <_>
      <internalNodes>
        0 -1 7256 -639681846 -611379830 269607458 822204835 -681667636
        1384120708 -2104719220 1863671239</internalNodes>
      <leafValues>
        -6.1577653884887695e-01 3.3859667181968689e-01</leafValues></_>
    <_>
      <internalNodes>
        0 -1 5648 -188508841 -647692143 155259335 1444230495 -2113645121
        2108656991 536898011 1004015671</internalNodes>
      <leafValues>
        -5.8381158113479614e-01 3.7970536947250366e-01</leafValues></_>
    <_>
      <internalNodes>
        0 -1 7183 1365627884 -197125868 1074952922 1948914326 1906911302
        1530003816 -652012161 -216810545</internalNodes>
      <leafValues>
        -5.5128961801528931e-01 3.8283851742744446e-01</leafValues></_>
    <_>
      <internalNodes>
        0 -1 4115 -232260257 -13537962 -134682947 -83108359 -1329609506
        -1175497426 -1249536803 -8391297</internalNodes>
      <leafValues>
        -3.4497088193893433e-01 7.1125411987304688e-01</leafValues></_></weakClassifiers></stage16>
</opencv_storage>
