<?xml version="1.0"?>
<opencv_storage>
<stage9>
  <maxWeakCount>7</maxWeakCount>
  <stageThreshold>-1.2993906736373901e+00</stageThreshold>
  <weakClassifiers>
    <_>
      <internalNodes>
        0 -1 5433 -2138554113 -1079026225 -249693737 -1113755149
        -53511681 -1091865665 -791939153 -1077969989</internalNodes>
      <leafValues>
        -6.3563472032546997e-01 4.7744107246398926e-01</leafValues></_>
    <_>
      <internalNodes>
        0 -1 6729 -629689986 -32042696 -436783688 -262308 -477393925
        -913658494 -576988003 -570430273</internalNodes>
      <leafValues>
        -5.9430611133575439e-01 4.3608009815216064e-01</leafValues></_>
    <_>
      <internalNodes>
        0 -1 5382 -536879617 -537395203 -352551714 2097135358 -51454258
        -16984106 -52441346 -1124073761</internalNodes>
      <leafValues>
        -4.9691781401634216e-01 5.2545928955078125e-01</leafValues></_>
    <_>
      <internalNodes>
        0 -1 251 -345510663 -516325364 -81526542 -842167969 -75894863
        -78900070 -95862544 -262490</internalNodes>
      <leafValues>
        -5.1404350996017456e-01 4.7572985291481018e-01</leafValues></_>
    <_>
      <internalNodes>
        0 -1 5531 -79961602 -615300144 -1023346852 -50228420 -1280640610
        -78857456 -489358635 -782894089</internalNodes>
      <leafValues>
        -6.7481994628906250e-01 3.3725172281265259e-01</leafValues></_>
    <_>
      <internalNodes>
        0 -1 6301 -720899894 -765755346 -1760935870 -251457533 -7864390
        -2146449396 1125086043 1398790043</internalNodes>
      <leafValues>
        -7.3536574840545654e-01 2.8346568346023560e-01</leafValues></_>
    <_>
      <internalNodes>
        0 -1 4570 -1199024936 -258938704 -128738081 -720060105
        -1431686406 -1075922545 -1059012421 -332578</internalNodes>
      <leafValues>
        -6.8053400516510010e-01 3.3661100268363953e-01</leafValues></_></weakClassifiers></stage9>
</opencv_storage>
