<?xml version="1.0"?>
<opencv_storage>
<stage7>
  <maxWeakCount>7</maxWeakCount>
  <stageThreshold>-1.0942354202270508e+00</stageThreshold>
  <weakClassifiers>
    <_>
      <internalNodes>
        0 -1 1093 -3088385 -3080336 -546307233 -537427877 -5202029
        -3885152 -1208966725 -554305</internalNodes>
      <leafValues>
        -6.3787376880645752e-01 5.2096927165985107e-01</leafValues></_>
    <_>
      <internalNodes>
        0 -1 6569 -67633221 1032785823 964402075 985503159 -121134421
        802091143 671995327 548405151</internalNodes>
      <leafValues>
        -7.3666769266128540e-01 3.9271625876426697e-01</leafValues></_>
    <_>
      <internalNodes>
        0 -1 1596 -70258701 -5902 -2669065 -267533 -608458755 -4423
        1992573168 -38989</internalNodes>
      <leafValues>
        -4.7638010978698730e-01 5.5290144681930542e-01</leafValues></_>
    <_>
      <internalNodes>
        0 -1 6352 -671094038 -198204120 -258817918 1927017883 1536216846
        1141727053 1676308887 1970798591</internalNodes>
      <leafValues>
        -7.7816945314407349e-01 3.8243490457534790e-01</leafValues></_>
    <_>
      <internalNodes>
        0 -1 5682 341119317 -537568491 1574303231 -115 -85004289
        -23070213 -875570177 -65</internalNodes>
      <leafValues>
        -5.0306123495101929e-01 5.0815361738204956e-01</leafValues></_>
    <_>
      <internalNodes>
        0 -1 4596 -318771969 -541016362 954127583 -78584078 -725901570
        -40140081 -788737361 -51315750</internalNodes>
      <leafValues>
        -5.6967306137084961e-01 4.4895365834236145e-01</leafValues></_>
    <_>
      <internalNodes>
        0 -1 5984 -269488946 -3160700 45803746 -201598209 -622860530
        1443364677 -488639745 -145227841</internalNodes>
      <leafValues>
        -5.5151265859603882e-01 4.3577069044113159e-01</leafValues></_></weakClassifiers></stage7>
</opencv_storage>
