<?xml version="1.0"?>
<opencv_storage>
<stage13>
  <maxWeakCount>8</maxWeakCount>
  <stageThreshold>-1.0225086212158203e+00</stageThreshold>
  <weakClassifiers>
    <_>
      <internalNodes>
        0 -1 7598 -268717061 -1427181586 -33555525 -1145358345
        -907022357 -1968517206 -574239661 -842015781</internalNodes>
      <leafValues>
        -4.0077319741249084e-01 5.4060065746307373e-01</leafValues></_>
    <_>
      <internalNodes>
        0 -1 2873 -67108865 -577766657 1090605485 -1705515 -100798215
        268122298 2020104554 1979710447</internalNodes>
      <leafValues>
        -6.3624823093414307e-01 3.3363050222396851e-01</leafValues></_>
    <_>
      <internalNodes>
        0 -1 3574 -586818561 2135375845 -1694531387 -548098880
        -2000700673 -285472262 -1534211603 -17789712</internalNodes>
      <leafValues>
        -5.4963284730911255e-01 3.6395379900932312e-01</leafValues></_>
    <_>
      <internalNodes>
        0 -1 7551 -417074430 1462187809 -1704731148 1734585598 -49816081
        -1920607061 -776104492 -707270153</internalNodes>
      <leafValues>
        -5.7481443881988525e-01 3.7391793727874756e-01</leafValues></_>
    <_>
      <internalNodes>
        0 -1 4090 -1314654726 -721046055 -2106745144 1167974794
        957074350 -570828655 1946145691 1595754267</internalNodes>
      <leafValues>
        -5.9766030311584473e-01 3.1228280067443848e-01</leafValues></_>
    <_>
      <internalNodes>
        0 -1 5795 1091551234 -1610883109 2002057727 938836443 -875576647
        -811409802 -203444289 -1075629073</internalNodes>
      <leafValues>
        -5.8086699247360229e-01 3.3183220028877258e-01</leafValues></_>
    <_>
      <internalNodes>
        0 -1 7043 387814827 -1458388223 857200629 -78292488 520334251
        757326259 229607549 156076092</internalNodes>
      <leafValues>
        -7.3565107583999634e-01 2.6967433094978333e-01</leafValues></_>
    <_>
      <internalNodes>
        0 -1 5021 1375928394 -814801610 -1321795586 1212768080
        -611605638 -301280902 -1778413193 -511839633</internalNodes>
      <leafValues>
        -6.3901495933532715e-01 2.8087630867958069e-01</leafValues></_></weakClassifiers></stage13>
</opencv_storage>
