<?xml version="1.0"?>
<opencv_storage>
<stage8>
  <maxWeakCount>6</maxWeakCount>
  <stageThreshold>-1.0471159219741821e+00</stageThreshold>
  <weakClassifiers>
    <_>
      <internalNodes>
        0 -1 3963 -984304 -8041 -740010857 1608482895 -75440583 -1079121
        -1190090005 -40241</internalNodes>
      <leafValues>
        -8.2781457901000977e-01 4.1178804636001587e-01</leafValues></_>
    <_>
      <internalNodes>
        0 -1 6767 -1254621189 587240321 -174729377 -1073744929 -76154949
        -1416913877 -2063599473 168818927</internalNodes>
      <leafValues>
        -6.9624453783035278e-01 3.9891868829727173e-01</leafValues></_>
    <_>
      <internalNodes>
        0 -1 5968 -67111186 -420485406 1886872290 -252183581 -138690737
        1078385155 -679741993 2012215247</internalNodes>
      <leafValues>
        -7.3152786493301392e-01 3.5725027322769165e-01</leafValues></_>
    <_>
      <internalNodes>
        0 -1 7676 -539494989 -149970157 395825947 -1875799749
        -1810394973 -960674274 -1299459674 -1330580734</internalNodes>
      <leafValues>
        -5.9693163633346558e-01 4.1290226578712463e-01</leafValues></_>
    <_>
      <internalNodes>
        0 -1 3173 1390208991 -1090732337 -1056847714 -73662529 169083932
        1287128075 1804291982 1610569055</internalNodes>
      <leafValues>
        -7.3203504085540771e-01 3.3171543478965759e-01</leafValues></_>
    <_>
      <internalNodes>
        0 -1 3880 -1172581127 -1084499745 -138151109 -1610622577
        -1693450064 -1079803523 -1073924949 -1078246179</internalNodes>
      <leafValues>
        -5.4897409677505493e-01 4.3244060873985291e-01</leafValues></_></weakClassifiers></stage8>
</opencv_storage>
