<?xml version="1.0"?>
<opencv_storage>
<stage15>
  <maxWeakCount>10</maxWeakCount>
  <stageThreshold>-1.5680825710296631e+00</stageThreshold>
  <weakClassifiers>
    <_>
      <internalNodes>
        0 -1 7920 -9438669 2008494387 37206586 271755818 -234900013
        -235539533 -939592049 -436353297</internalNodes>
      <leafValues>
        -4.0607273578643799e-01 5.1768833398818970e-01</leafValues></_>
    <_>
      <internalNodes>
        0 -1 4766 1565851605 353419156 2147350527 2147483515 1549589752
        2147483644 -536887361 -2081</internalNodes>
      <leafValues>
        -4.3631741404533386e-01 4.5488497614860535e-01</leafValues></_>
    <_>
      <internalNodes>
        0 -1 4643 -2122497 -235479840 -1914023169 -2142122761
        -1089851893 -1400865200 -941950229 -1059854085</internalNodes>
      <leafValues>
        -4.9984008073806763e-01 3.8381633162498474e-01</leafValues></_>
    <_>
      <internalNodes>
        0 -1 2850 -750520346 626590955 1276315851 1966019359 26080128
        -612304003 1808102277 2144225243</internalNodes>
      <leafValues>
        -5.9958225488662720e-01 3.2613578438758850e-01</leafValues></_>
    <_>
      <internalNodes>
        0 -1 5540 -84017441 -775561987 -303171495 -549065633 -889206017
        -343224594 -2132034818 -888997174</internalNodes>
      <leafValues>
        -3.8387486338615417e-01 5.0426632165908813e-01</leafValues></_>
    <_>
      <internalNodes>
        0 -1 5868 -2130561 1000354012 1124850879 1477730335 -653332259
        -1184425919 2099371184 1461703650</internalNodes>
      <leafValues>
        -4.3987122178077698e-01 4.5117130875587463e-01</leafValues></_>
    <_>
      <internalNodes>
        0 -1 5594 -557847858 -833644466 -497631072 1920185242 -577016062
        1145739269 -220215596 1350561659</internalNodes>
      <leafValues>
        -7.6922780275344849e-01 2.5852426886558533e-01</leafValues></_>
    <_>
      <internalNodes>
        0 -1 3568 -1312697614 1603894495 1120504488 2006831812
        1804175803 -258891775 1794804667 1610415003</internalNodes>
      <leafValues>
        -5.3811985254287720e-01 3.2013711333274841e-01</leafValues></_>
    <_>
      <internalNodes>
        0 -1 6966 1380950698 1941942822 1594160125 2077346333 -775176214
        -69668808 -1691646978 462969005</internalNodes>
      <leafValues>
        -5.8902198076248169e-01 3.1617629528045654e-01</leafValues></_>
    <_>
      <internalNodes>
        0 -1 5751 -556379112 -543947631 -800243499 -36319076 -93300344
        -24111059 -91309858 951906078</internalNodes>
      <leafValues>
        -6.3538438081741333e-01 2.9123476147651672e-01</leafValues></_></weakClassifiers></stage15>
</opencv_storage>
