<?xml version="1.0"?>
<opencv_storage>
<stage18>
  <maxWeakCount>7</maxWeakCount>
  <stageThreshold>-1.1511995792388916e+00</stageThreshold>
  <weakClassifiers>
    <_>
      <internalNodes>
        0 -1 7921 -1444436569 -1284374384 -1860067291 543907938
        -980179710 -841743017 1740997955 -2121299294</internalNodes>
      <leafValues>
        -3.7697994709014893e-01 7.3076921701431274e-01</leafValues></_>
    <_>
      <internalNodes>
        0 -1 5354 429766801 1942028825 9441543 939622481 268468975
        470288387 167938287 696975816</internalNodes>
      <leafValues>
        -4.6861815452575684e-01 6.5044444799423218e-01</leafValues></_>
    <_>
      <internalNodes>
        0 -1 3185 -142504007 1005506559 -285279592 -336789505 1553877668
        1589904621 -825028980 -291533457</internalNodes>
      <leafValues>
        -4.4016069173812866e-01 6.8938016891479492e-01</leafValues></_>
    <_>
      <internalNodes>
        0 -1 4086 1345781790 -758972310 50569298 67715202 -1399980022
        -2138963968 1082163728 -1213350889</internalNodes>
      <leafValues>
        -5.2999204397201538e-01 6.1605709791183472e-01</leafValues></_>
    <_>
      <internalNodes>
        0 -1 6305 -679447012 290530053 9437200 1476433938 1207959688
        -1977556984 -2111803254 -1603698685</internalNodes>
      <leafValues>
        -6.0484242439270020e-01 6.0089528560638428e-01</leafValues></_>
    <_>
      <internalNodes>
        0 -1 3553 -55241489 -942284972 -1025094205 272695040 -1393577851
        -622899629 -1605633585 -1568473268</internalNodes>
      <leafValues>
        -4.5350095629692078e-01 7.5153464078903198e-01</leafValues></_>
    <_>
      <internalNodes>
        0 -1 2621 419540997 -2126905146 -2146959179 65667 -2130374390
        -1476395007 -534708103 -28727278</internalNodes>
      <leafValues>
        -5.4221707582473755e-01 6.4120870828628540e-01</leafValues></_></weakClassifiers></stage18>
</opencv_storage>
