<?xml version="1.0"?>
<opencv_storage>
<stage14>
  <maxWeakCount>9</maxWeakCount>
  <stageThreshold>-1.8039920330047607e+00</stageThreshold>
  <weakClassifiers>
    <_>
      <internalNodes>
        0 -1 204 -271581185 -1880228050 -201326608 -268959750 -2097217
        -338690089 2147483568 -29</internalNodes>
      <leafValues>
        -3.8793373107910156e-01 5.5441302061080933e-01</leafValues></_>
    <_>
      <internalNodes>
        0 -1 2588 -134234689 -567742930 2080307963 -1062285778
        -1174470648 504168711 -671428641 -27308969</internalNodes>
      <leafValues>
        -4.2740589380264282e-01 4.8988962173461914e-01</leafValues></_>
    <_>
      <internalNodes>
        0 -1 7270 -696 -202375222 1625891050 1119861515 1607160782
        1326140364 -1057498066 -440935425</internalNodes>
      <leafValues>
        -4.9515944719314575e-01 4.0450170636177063e-01</leafValues></_>
    <_>
      <internalNodes>
        0 -1 4716 -1059594753 -1219548385 71503191 859469723 -1073017154
        -15759009 313485141 454063925</internalNodes>
      <leafValues>
        -7.9538315534591675e-01 2.4530640244483948e-01</leafValues></_>
    <_>
      <internalNodes>
        0 -1 5079 -1107722755 -1075053952 814281467 -1052639855
        -16974326 -24313905 -51449095 -1060246324</internalNodes>
      <leafValues>
        -4.0642410516738892e-01 4.9821457266807556e-01</leafValues></_>
    <_>
      <internalNodes>
        0 -1 5337 -1115140641 -1627367793 -1723608729 -1086959321
        -105949795 -1154875369 -355795066 -1078256193</internalNodes>
      <leafValues>
        -5.4628968238830566e-01 3.6130008101463318e-01</leafValues></_>
    <_>
      <internalNodes>
        0 -1 3593 -830743532 -996776 -728186792 155831165 572098702
        2104852506 4116571 -1621894328</internalNodes>
      <leafValues>
        -5.6656688451766968e-01 3.7360465526580811e-01</leafValues></_>
    <_>
      <internalNodes>
        0 -1 7621 -1836327525 -1347828808 966864976 1607422333 127653631
        -1951668037 24454623 535810813</internalNodes>
      <leafValues>
        -5.1732915639877319e-01 3.6717268824577332e-01</leafValues></_>
    <_>
      <internalNodes>
        0 -1 6720 -67177560 -552887670 1920655392 1344535455 -547468209
        1594577669 -138455053 -751304774</internalNodes>
      <leafValues>
        -5.6654566526412964e-01 3.5763886570930481e-01</leafValues></_></weakClassifiers></stage14>
</opencv_storage>
