<?xml version="1.0"?>
<opencv_storage>
<stage17>
  <maxWeakCount>9</maxWeakCount>
  <stageThreshold>-1.6110901832580566e+00</stageThreshold>
  <weakClassifiers>
    <_>
      <internalNodes>
        0 -1 7899 -374347471 -1174929952 137553715 10526897 -2058403574
        -557001221 1171078149 -2134130293</internalNodes>
      <leafValues>
        -4.7807332873344421e-01 5.1812148094177246e-01</leafValues></_>
    <_>
      <internalNodes>
        0 -1 1902 -1612669174 -729121118 -324330401 1015278607
        -144342016 -822065143 -1100255686 -10498229</internalNodes>
      <leafValues>
        -4.7012805938720703e-01 4.8750895261764526e-01</leafValues></_>
    <_>
      <internalNodes>
        0 -1 5029 563697757 -984168635 84472345 1392660480 -69089208
        -1271955440 176210568 1510473730</internalNodes>
      <leafValues>
        -5.7901883125305176e-01 4.1205027699470520e-01</leafValues></_>
    <_>
      <internalNodes>
        0 -1 4056 1394036820 -998678532 1608243928 -971382796
        -1973757430 -1896614056 693305453 -176163985</internalNodes>
      <leafValues>
        -4.7906416654586792e-01 5.0973820686340332e-01</leafValues></_>
    <_>
      <internalNodes>
        0 -1 4153 -169804549 -1779066752 -279907973 -664746797
        -1090078165 -89916159 -384567271 -23945078</internalNodes>
      <leafValues>
        -4.6153602004051208e-01 5.6652230024337769e-01</leafValues></_>
    <_>
      <internalNodes>
        0 -1 7607 1140368315 -274011153 871528240 1039806398 -1008821565
        61566504 -141066365 -810588329</internalNodes>
      <leafValues>
        -4.7504782676696777e-01 5.2542078495025635e-01</leafValues></_>
    <_>
      <internalNodes>
        0 -1 2705 -74808823 -749032701 -1828118517 1252460609 1980823731
        -1056792064 -779392766 1996686495</internalNodes>
      <leafValues>
        -4.9665254354476929e-01 4.8636808991432190e-01</leafValues></_>
    <_>
      <internalNodes>
        0 -1 7604 -740224741 -2063553406 83903632 -1320319967
        -1840953229 -1574940670 -2050340521 102220725</internalNodes>
      <leafValues>
        -5.7051962614059448e-01 4.3138086795806885e-01</leafValues></_>
    <_>
      <internalNodes>
        0 -1 4590 -2134845730 1439057417 -2004858262 2089746528
        -1123089733 -6356920 -1039594517 144286755</internalNodes>
      <leafValues>
        -6.4666193723678589e-01 3.9658114314079285e-01</leafValues></_></weakClassifiers></stage17>
</opencv_storage>
